digraph Tree {
node [shape=box, style="filled, rounded", color="black", fontname="helvetica"] ;
edge [fontname="helvetica"] ;
0 [label="petal length (cm) <= 2.45\ngini = 0.66\nsamples = 94\nvalue = [46, 55, 49]\nclass = versicolor", fillcolor="#f3fdf8"] ;
1 [label="gini = 0.0\nsamples = 30\nvalue = [46, 0, 0]\nclass = setosa", fillcolor="#e58139"] ;
0 -> 1 [labeldistance=2.5, labelangle=45, headlabel="True"] ;
2 [label="petal width (cm) <= 1.75\ngini = 0.5\nsamples = 64\nvalue = [0, 55, 49]\nclass = versicolor", fillcolor="#e9fcf1"] ;
0 -> 2 [labeldistance=2.5, labelangle=-45, headlabel="False"] ;
3 [label="sepal length (cm) <= 7.1\ngini = 0.16\nsamples = 36\nvalue = [0, 54, 5]\nclass = versicolor", fillcolor="#4be78d"] ;
2 -> 3 ;
4 [label="sepal width (cm) <= 2.25\ngini = 0.13\nsamples = 35\nvalue = [0, 54, 4]\nclass = versicolor", fillcolor="#48e78a"] ;
3 -> 4 ;
5 [label="petal width (cm) <= 1.25\ngini = 0.5\nsamples = 3\nvalue = [0, 2, 2]\nclass = versicolor", fillcolor="#ffffff"] ;
4 -> 5 ;
6 [label="gini = 0.0\nsamples = 1\nvalue = [0, 1, 0]\nclass = versicolor", fillcolor="#39e581"] ;
5 -> 6 ;
7 [label="sepal length (cm) <= 6.1\ngini = 0.44\nsamples = 2\nvalue = [0, 1, 2]\nclass = virginica", fillcolor="#c09cf2"] ;
5 -> 7 ;
8 [label="gini = 0.0\nsamples = 1\nvalue = [0, 0, 2]\nclass = virginica", fillcolor="#8139e5"] ;
7 -> 8 ;
9 [label="gini = 0.0\nsamples = 1\nvalue = [0, 1, 0]\nclass = versicolor", fillcolor="#39e581"] ;
7 -> 9 ;
10 [label="petal length (cm) <= 5.3\ngini = 0.07\nsamples = 32\nvalue = [0, 52, 2]\nclass = versicolor", fillcolor="#41e686"] ;
4 -> 10 ;
11 [label="gini = 0.0\nsamples = 31\nvalue = [0, 52, 0]\nclass = versicolor", fillcolor="#39e581"] ;
10 -> 11 ;
12 [label="gini = 0.0\nsamples = 1\nvalue = [0, 0, 2]\nclass = virginica", fillcolor="#8139e5"] ;
10 -> 12 ;
13 [label="gini = 0.0\nsamples = 1\nvalue = [0, 0, 1]\nclass = virginica", fillcolor="#8139e5"] ;
3 -> 13 ;
14 [label="petal length (cm) <= 4.9\ngini = 0.04\nsamples = 28\nvalue = [0, 1, 44]\nclass = virginica", fillcolor="#843de6"] ;
2 -> 14 ;
15 [label="sepal width (cm) <= 3.0\ngini = 0.5\nsamples = 2\nvalue = [0, 1, 1]\nclass = versicolor", fillcolor="#ffffff"] ;
14 -> 15 ;
16 [label="gini = 0.0\nsamples = 1\nvalue = [0, 0, 1]\nclass = virginica", fillcolor="#8139e5"] ;
15 -> 16 ;
17 [label="gini = 0.0\nsamples = 1\nvalue = [0, 1, 0]\nclass = versicolor", fillcolor="#39e581"] ;
15 -> 17 ;
18 [label="gini = 0.0\nsamples = 26\nvalue = [0, 0, 43]\nclass = virginica", fillcolor="#8139e5"] ;
14 -> 18 ;
}